<?xml version="1.0"?>
<opencv_storage>
<cascade>
  <stageType>BOOST</stageType>
  <featureType>HOG</featureType>
  <height>60</height>
  <width>40</width>
  <stageParams>
    <boostType>GAB</boostType>
    <minHitRate>9.4999998807907104e-01</minHitRate>
    <maxFalseAlarm>5.0000000000000000e-01</maxFalseAlarm>
    <weightTrimRate>9.4999999999999996e-01</weightTrimRate>
    <maxDepth>1</maxDepth>
    <maxWeakCount>100</maxWeakCount></stageParams>
  <featureParams>
    <maxCatCount>0</maxCatCount>
    <featSize>36</featSize></featureParams>
  <stageNum>3</stageNum>
  <stages>
    <!-- stage 0 -->
    <_>
      <maxWeakCount>1</maxWeakCount>
      <stageThreshold>9.1470211744308472e-01</stageThreshold>
      <weakClassifiers>
        <_>
          <internalNodes>
            0 -1 0 4.8931058496236801e-02</internalNodes>
          <leafValues>
            -9.0982216596603394e-01 9.1470211744308472e-01</leafValues></_></weakClassifiers></_>
    <!-- stage 1 -->
    <_>
      <maxWeakCount>1</maxWeakCount>
      <stageThreshold>8.9741128683090210e-01</stageThreshold>
      <weakClassifiers>
        <_>
          <internalNodes>
            0 -1 1 4.6134022995829582e-03</internalNodes>
          <leafValues>
            8.9741128683090210e-01 -9.5350897312164307e-01</leafValues></_></weakClassifiers></_>
    <!-- stage 2 -->
    <_>
      <maxWeakCount>1</maxWeakCount>
      <stageThreshold>8.2695382833480835e-01</stageThreshold>
      <weakClassifiers>
        <_>
          <internalNodes>
            0 -1 2 2.8576739132404327e-02</internalNodes>
          <leafValues>
            -8.6694484949111938e-01 8.2695382833480835e-01</leafValues></_></weakClassifiers></_></stages>
  <features>
    <_>
      <rect>
        8 36 8 8 6</rect></_>
    <_>
      <rect>
        16 28 8 8 26</rect></_>
    <_>
      <rect>
        4 20 16 8 19</rect></_></features></cascade>
</opencv_storage>
