<?xml version="1.0"?>
<opencv_storage>
<cascade>
  <stageType>BOOST</stageType>
  <featureType>HOG</featureType>
  <height>22</height>
  <width>20</width>
  <stageParams>
    <boostType>GAB</boostType>
    <minHitRate>9.9500000476837158e-01</minHitRate>
    <maxFalseAlarm>5.0000000000000000e-01</maxFalseAlarm>
    <weightTrimRate>9.4999999999999996e-01</weightTrimRate>
    <maxDepth>1</maxDepth>
    <maxWeakCount>100</maxWeakCount></stageParams>
  <featureParams>
    <maxCatCount>0</maxCatCount>
    <featSize>36</featSize></featureParams>
  <stageNum>7</stageNum>
  <stages>
    <!-- stage 0 -->
    <_>
      <maxWeakCount>2</maxWeakCount>
      <stageThreshold>-3.2361769676208496e-01</stageThreshold>
      <weakClassifiers>
        <_>
          <internalNodes>
            0 -1 13 2.8777110856026411e-03</internalNodes>
          <leafValues>
            5.0341928005218506e-01 -9.3148368597030640e-01</leafValues></_>
        <_>
          <internalNodes>
            0 -1 12 2.9153071343898773e-02</internalNodes>
          <leafValues>
            -8.2703697681427002e-01 6.2220495939254761e-01</leafValues></_></weakClassifiers></_>
    <!-- stage 1 -->
    <_>
      <maxWeakCount>3</maxWeakCount>
      <stageThreshold>-8.9044815301895142e-01</stageThreshold>
      <weakClassifiers>
        <_>
          <internalNodes>
            0 -1 0 4.1761912405490875e-02</internalNodes>
          <leafValues>
            -6.7160212993621826e-01 5.9387832880020142e-01</leafValues></_>
        <_>
          <internalNodes>
            0 -1 14 6.1994558200240135e-04</internalNodes>
          <leafValues>
            7.0567655563354492e-01 -6.9967091083526611e-01</leafValues></_>
        <_>
          <internalNodes>
            0 -1 1 2.4925664067268372e-02</internalNodes>
          <leafValues>
            -6.3071095943450928e-01 4.8082491755485535e-01</leafValues></_></weakClassifiers></_>
    <!-- stage 2 -->
    <_>
      <maxWeakCount>3</maxWeakCount>
      <stageThreshold>-3.5796687006950378e-01</stageThreshold>
      <weakClassifiers>
        <_>
          <internalNodes>
            0 -1 5 6.2830336391925812e-03</internalNodes>
          <leafValues>
            2.5963443517684937e-01 -9.1779214143753052e-01</leafValues></_>
        <_>
          <internalNodes>
            0 -1 3 6.3898097723722458e-03</internalNodes>
          <leafValues>
            -9.3624657392501831e-01 1.8741592764854431e-01</leafValues></_>
        <_>
          <internalNodes>
            0 -1 10 3.3167307265102863e-03</internalNodes>
          <leafValues>
            3.7240934371948242e-01 -7.6987212896347046e-01</leafValues></_></weakClassifiers></_>
    <!-- stage 3 -->
    <_>
      <maxWeakCount>4</maxWeakCount>
      <stageThreshold>-1.1402357816696167e+00</stageThreshold>
      <weakClassifiers>
        <_>
          <internalNodes>
            0 -1 12 1.7145704478025436e-02</internalNodes>
          <leafValues>
            -9.4062077999114990e-01 1.6877382993698120e-01</leafValues></_>
        <_>
          <internalNodes>
            0 -1 21 4.0280409157276154e-02</internalNodes>
          <leafValues>
            2.1443393826484680e-01 -7.8788006305694580e-01</leafValues></_>
        <_>
          <internalNodes>
            0 -1 18 5.3010405972599983e-03</internalNodes>
          <leafValues>
            -9.4689184427261353e-01 2.5364702939987183e-01</leafValues></_>
        <_>
          <internalNodes>
            0 -1 17 1.2798807583749294e-03</internalNodes>
          <leafValues>
            3.4787976741790771e-01 -6.6769605875015259e-01</leafValues></_></weakClassifiers></_>
    <!-- stage 4 -->
    <_>
      <maxWeakCount>4</maxWeakCount>
      <stageThreshold>-8.6389863491058350e-01</stageThreshold>
      <weakClassifiers>
        <_>
          <internalNodes>
            0 -1 21 3.3842496573925018e-02</internalNodes>
          <leafValues>
            1.9845594465732574e-01 -7.9621791839599609e-01</leafValues></_>
        <_>
          <internalNodes>
            0 -1 4 1.8870395142585039e-03</internalNodes>
          <leafValues>
            3.1181052327156067e-01 -6.9270694255828857e-01</leafValues></_>
        <_>
          <internalNodes>
            0 -1 2 5.7379391044378281e-02</internalNodes>
          <leafValues>
            2.4383941292762756e-01 -9.2171847820281982e-01</leafValues></_>
        <_>
          <internalNodes>
            0 -1 7 3.6559648811817169e-02</internalNodes>
          <leafValues>
            -4.8676437139511108e-01 5.4222720861434937e-01</leafValues></_></weakClassifiers></_>
    <!-- stage 5 -->
    <_>
      <maxWeakCount>4</maxWeakCount>
      <stageThreshold>-6.8570965528488159e-01</stageThreshold>
      <weakClassifiers>
        <_>
          <internalNodes>
            0 -1 9 6.8579604849219322e-03</internalNodes>
          <leafValues>
            1.8920145928859711e-01 -7.8581517934799194e-01</leafValues></_>
        <_>
          <internalNodes>
            0 -1 20 6.3479882664978504e-03</internalNodes>
          <leafValues>
            -8.6960369348526001e-01 2.1140292286872864e-01</leafValues></_>
        <_>
          <internalNodes>
            0 -1 14 9.3218125402927399e-04</internalNodes>
          <leafValues>
            5.4666173458099365e-01 -5.8345067501068115e-01</leafValues></_>
        <_>
          <internalNodes>
            0 -1 0 5.4337002336978912e-02</internalNodes>
          <leafValues>
            -5.0190818309783936e-01 5.7814323902130127e-01</leafValues></_></weakClassifiers></_>
    <!-- stage 6 -->
    <_>
      <maxWeakCount>7</maxWeakCount>
      <stageThreshold>-1.4909490346908569e+00</stageThreshold>
      <weakClassifiers>
        <_>
          <internalNodes>
            0 -1 19 4.0769474580883980e-03</internalNodes>
          <leafValues>
            1.0227026790380478e-01 -7.2847682237625122e-01</leafValues></_>
        <_>
          <internalNodes>
            0 -1 8 4.0050176903605461e-03</internalNodes>
          <leafValues>
            -8.2226872444152832e-01 2.6157566905021667e-01</leafValues></_>
        <_>
          <internalNodes>
            0 -1 16 5.2447132766246796e-03</internalNodes>
          <leafValues>
            -8.3393746614456177e-01 1.8462374806404114e-01</leafValues></_>
        <_>
          <internalNodes>
            0 -1 15 6.5366868511773646e-05</internalNodes>
          <leafValues>
            6.9024139642715454e-01 -3.9017906785011292e-01</leafValues></_>
        <_>
          <internalNodes>
            0 -1 6 2.2535547614097595e-02</internalNodes>
          <leafValues>
            -5.1432418823242188e-01 4.3530121445655823e-01</leafValues></_>
        <_>
          <internalNodes>
            0 -1 13 2.3310619872063398e-03</internalNodes>
          <leafValues>
            2.9070544242858887e-01 -7.8093695640563965e-01</leafValues></_>
        <_>
          <internalNodes>
            0 -1 11 2.6275385171175003e-02</internalNodes>
          <leafValues>
            -5.9487384557723999e-01 3.3302226662635803e-01</leafValues></_></weakClassifiers></_></stages>
  <features>
    <_>
      <rect>
        0 0 8 8 1</rect></_>
    <_>
      <rect>
        0 0 8 8 2</rect></_>
    <_>
      <rect>
        0 0 8 8 22</rect></_>
    <_>
      <rect>
        0 0 8 8 24</rect></_>
    <_>
      <rect>
        0 0 8 8 34</rect></_>
    <_>
      <rect>
        0 0 8 8 35</rect></_>
    <_>
      <rect>
        0 4 8 8 0</rect></_>
    <_>
      <rect>
        0 4 8 8 24</rect></_>
    <_>
      <rect>
        0 4 8 8 25</rect></_>
    <_>
      <rect>
        0 4 8 8 33</rect></_>
    <_>
      <rect>
        0 4 8 8 34</rect></_>
    <_>
      <rect>
        4 0 8 8 14</rect></_>
    <_>
      <rect>
        4 0 8 8 15</rect></_>
    <_>
      <rect>
        4 0 8 8 18</rect></_>
    <_>
      <rect>
        4 0 8 8 19</rect></_>
    <_>
      <rect>
        4 0 8 8 26</rect></_>
    <_>
      <rect>
        4 0 8 8 28</rect></_>
    <_>
      <rect>
        4 4 8 8 18</rect></_>
    <_>
      <rect>
        4 4 8 8 23</rect></_>
    <_>
      <rect>
        4 4 8 8 26</rect></_>
    <_>
      <rect>
        4 4 8 8 28</rect></_>
    <_>
      <rect>
        4 4 8 8 31</rect></_></features></cascade>
</opencv_storage>
