<?xml version="1.0"?>
<opencv_storage>
<cascade>
  <stageType>BOOST</stageType>
  <featureType>HOG</featureType>
  <height>27</height>
  <width>24</width>
  <stageParams>
    <boostType>GAB</boostType>
    <minHitRate>9.4999998807907104e-01</minHitRate>
    <maxFalseAlarm>5.0000000000000000e-01</maxFalseAlarm>
    <weightTrimRate>9.4999999999999996e-01</weightTrimRate>
    <maxDepth>1</maxDepth>
    <maxWeakCount>100</maxWeakCount></stageParams>
  <featureParams>
    <maxCatCount>0</maxCatCount>
    <featSize>36</featSize></featureParams>
  <stageNum>8</stageNum>
  <stages>
    <!-- stage 0 -->
    <_>
      <maxWeakCount>2</maxWeakCount>
      <stageThreshold>-1.7671097815036774e-01</stageThreshold>
      <weakClassifiers>
        <_>
          <internalNodes>
            0 -1 5 1.7103155842050910e-03</internalNodes>
          <leafValues>
            5.6108897924423218e-01 -7.3698073625564575e-01</leafValues></_>
        <_>
          <internalNodes>
            0 -1 3 2.9340367764234543e-02</internalNodes>
          <leafValues>
            -6.8005353212356567e-01 5.6026977300643921e-01</leafValues></_></weakClassifiers></_>
    <!-- stage 1 -->
    <_>
      <maxWeakCount>2</maxWeakCount>
      <stageThreshold>-3.9330860972404480e-01</stageThreshold>
      <weakClassifiers>
        <_>
          <internalNodes>
            0 -1 16 1.8939822912216187e-03</internalNodes>
          <leafValues>
            3.9252600073814392e-01 -7.6207840442657471e-01</leafValues></_>
        <_>
          <internalNodes>
            0 -1 4 2.0880194380879402e-02</internalNodes>
          <leafValues>
            3.6876979470252991e-01 -7.2282725572586060e-01</leafValues></_></weakClassifiers></_>
    <!-- stage 2 -->
    <_>
      <maxWeakCount>2</maxWeakCount>
      <stageThreshold>-2.9463893175125122e-01</stageThreshold>
      <weakClassifiers>
        <_>
          <internalNodes>
            0 -1 15 2.6353606954216957e-02</internalNodes>
          <leafValues>
            -7.2905451059341431e-01 4.3523001670837402e-01</leafValues></_>
        <_>
          <internalNodes>
            0 -1 1 3.1050611287355423e-02</internalNodes>
          <leafValues>
            -7.2986894845962524e-01 4.7108814120292664e-01</leafValues></_></weakClassifiers></_>
    <!-- stage 3 -->
    <_>
      <maxWeakCount>3</maxWeakCount>
      <stageThreshold>-6.5746545791625977e-01</stageThreshold>
      <weakClassifiers>
        <_>
          <internalNodes>
            0 -1 18 1.2970903189852834e-03</internalNodes>
          <leafValues>
            6.0885024070739746e-01 -6.4401769638061523e-01</leafValues></_>
        <_>
          <internalNodes>
            0 -1 20 8.5424641147255898e-03</internalNodes>
          <leafValues>
            6.4781749248504639e-01 -5.2070444822311401e-01</leafValues></_>
        <_>
          <internalNodes>
            0 -1 11 6.0117822140455246e-03</internalNodes>
          <leafValues>
            5.4557281732559204e-01 -6.6126519441604614e-01</leafValues></_></weakClassifiers></_>
    <!-- stage 4 -->
    <_>
      <maxWeakCount>5</maxWeakCount>
      <stageThreshold>-4.6734467148780823e-01</stageThreshold>
      <weakClassifiers>
        <_>
          <internalNodes>
            0 -1 0 2.6234809309244156e-02</internalNodes>
          <leafValues>
            -6.8725967407226562e-01 1.8141373991966248e-01</leafValues></_>
        <_>
          <internalNodes>
            0 -1 12 2.9150049667805433e-03</internalNodes>
          <leafValues>
            4.6524950861930847e-01 -5.6764358282089233e-01</leafValues></_>
        <_>
          <internalNodes>
            0 -1 19 1.0491482913494110e-02</internalNodes>
          <leafValues>
            -6.8469959497451782e-01 2.8846943378448486e-01</leafValues></_>
        <_>
          <internalNodes>
            0 -1 17 4.2121363803744316e-03</internalNodes>
          <leafValues>
            3.9844685792922974e-01 -5.9747284650802612e-01</leafValues></_>
        <_>
          <internalNodes>
            0 -1 3 1.3102522119879723e-02</internalNodes>
          <leafValues>
            -8.7248080968856812e-01 2.2788858413696289e-01</leafValues></_></weakClassifiers></_>
    <!-- stage 5 -->
    <_>
      <maxWeakCount>3</maxWeakCount>
      <stageThreshold>-3.7028414011001587e-01</stageThreshold>
      <weakClassifiers>
        <_>
          <internalNodes>
            0 -1 17 2.0115769002586603e-03</internalNodes>
          <leafValues>
            2.9076921939849854e-01 -7.6130467653274536e-01</leafValues></_>
        <_>
          <internalNodes>
            0 -1 21 1.2195994146168232e-02</internalNodes>
          <leafValues>
            1.8605734407901764e-01 -8.4293979406356812e-01</leafValues></_>
        <_>
          <internalNodes>
            0 -1 14 2.9985770583152771e-02</internalNodes>
          <leafValues>
            2.0496319234371185e-01 -8.0702430009841919e-01</leafValues></_></weakClassifiers></_>
    <!-- stage 6 -->
    <_>
      <maxWeakCount>4</maxWeakCount>
      <stageThreshold>-9.6233439445495605e-01</stageThreshold>
      <weakClassifiers>
        <_>
          <internalNodes>
            0 -1 10 1.2977248989045620e-02</internalNodes>
          <leafValues>
            6.7910447716712952e-02 -8.9331269264221191e-01</leafValues></_>
        <_>
          <internalNodes>
            0 -1 8 1.1851707473397255e-02</internalNodes>
          <leafValues>
            -8.0162811279296875e-01 1.4492750167846680e-01</leafValues></_>
        <_>
          <internalNodes>
            0 -1 7 9.1629326343536377e-03</internalNodes>
          <leafValues>
            -7.4065953493118286e-01 2.1420739591121674e-01</leafValues></_>
        <_>
          <internalNodes>
            0 -1 6 2.2328838240355253e-03</internalNodes>
          <leafValues>
            4.1270855069160461e-01 -4.3451282382011414e-01</leafValues></_></weakClassifiers></_>
    <!-- stage 7 -->
    <_>
      <maxWeakCount>4</maxWeakCount>
      <stageThreshold>-3.3422389626502991e-01</stageThreshold>
      <weakClassifiers>
        <_>
          <internalNodes>
            0 -1 13 1.3283547759056091e-01</internalNodes>
          <leafValues>
            -3.9028957486152649e-01 7.5745528936386108e-01</leafValues></_>
        <_>
          <internalNodes>
            0 -1 2 6.5895693842321634e-04</internalNodes>
          <leafValues>
            4.6569633483886719e-01 -3.8774257898330688e-01</leafValues></_>
        <_>
          <internalNodes>
            0 -1 4 3.6984115839004517e-02</internalNodes>
          <leafValues>
            2.5312143564224243e-01 -8.8246583938598633e-01</leafValues></_>
        <_>
          <internalNodes>
            0 -1 9 1.2921465560793877e-02</internalNodes>
          <leafValues>
            -8.5698413848876953e-01 1.9068685173988342e-01</leafValues></_></weakClassifiers></_></stages>
  <features>
    <_>
      <rect>
        0 0 8 8 2</rect></_>
    <_>
      <rect>
        0 0 8 8 12</rect></_>
    <_>
      <rect>
        0 0 8 8 34</rect></_>
    <_>
      <rect>
        0 4 8 8 1</rect></_>
    <_>
      <rect>
        0 4 8 8 4</rect></_>
    <_>
      <rect>
        0 4 8 8 10</rect></_>
    <_>
      <rect>
        0 4 8 8 14</rect></_>
    <_>
      <rect>
        0 8 8 8 24</rect></_>
    <_>
      <rect>
        4 0 8 8 2</rect></_>
    <_>
      <rect>
        4 0 8 8 3</rect></_>
    <_>
      <rect>
        4 0 8 8 20</rect></_>
    <_>
      <rect>
        4 0 8 8 21</rect></_>
    <_>
      <rect>
        4 4 8 8 11</rect></_>
    <_>
      <rect>
        4 8 8 8 6</rect></_>
    <_>
      <rect>
        4 8 8 8 26</rect></_>
    <_>
      <rect>
        8 0 8 8 14</rect></_>
    <_>
      <rect>
        8 4 8 8 0</rect></_>
    <_>
      <rect>
        8 4 8 8 1</rect></_>
    <_>
      <rect>
        8 4 8 8 5</rect></_>
    <_>
      <rect>
        8 4 8 8 19</rect></_>
    <_>
      <rect>
        8 4 8 8 31</rect></_>
    <_>
      <rect>
        8 4 8 8 32</rect></_></features></cascade>
</opencv_storage>
