<?xml version="1.0"?>
<opencv_storage>
<cascade>
  <stageType>BOOST</stageType>
  <featureType>HOG</featureType>
  <height>30</height>
  <width>24</width>
  <stageParams>
    <boostType>GAB</boostType>
    <minHitRate>9.4999998807907104e-01</minHitRate>
    <maxFalseAlarm>5.0000000000000000e-01</maxFalseAlarm>
    <weightTrimRate>9.4999999999999996e-01</weightTrimRate>
    <maxDepth>1</maxDepth>
    <maxWeakCount>100</maxWeakCount></stageParams>
  <featureParams>
    <maxCatCount>0</maxCatCount>
    <featSize>36</featSize></featureParams>
  <stageNum>7</stageNum>
  <stages>
    <!-- stage 0 -->
    <_>
      <maxWeakCount>2</maxWeakCount>
      <stageThreshold>-3.5666894912719727e-01</stageThreshold>
      <weakClassifiers>
        <_>
          <internalNodes>
            0 -1 9 2.2039669565856457e-03</internalNodes>
          <leafValues>
            4.8160350322723389e-01 -8.5969799757003784e-01</leafValues></_>
        <_>
          <internalNodes>
            0 -1 16 3.2737098634243011e-02</internalNodes>
          <leafValues>
            -7.3152470588684082e-01 5.0302910804748535e-01</leafValues></_></weakClassifiers></_>
    <!-- stage 1 -->
    <_>
      <maxWeakCount>2</maxWeakCount>
      <stageThreshold>-4.0928387641906738e-01</stageThreshold>
      <weakClassifiers>
        <_>
          <internalNodes>
            0 -1 15 4.3986085802316666e-03</internalNodes>
          <leafValues>
            3.5082605481147766e-01 -8.8514745235443115e-01</leafValues></_>
        <_>
          <internalNodes>
            0 -1 17 4.6330574899911880e-02</internalNodes>
          <leafValues>
            -5.8104389905929565e-01 4.7586360573768616e-01</leafValues></_></weakClassifiers></_>
    <!-- stage 2 -->
    <_>
      <maxWeakCount>3</maxWeakCount>
      <stageThreshold>-3.6009880900382996e-01</stageThreshold>
      <weakClassifiers>
        <_>
          <internalNodes>
            0 -1 3 1.5270339325070381e-02</internalNodes>
          <leafValues>
            -8.4180408716201782e-01 1.1133440583944321e-01</leafValues></_>
        <_>
          <internalNodes>
            0 -1 5 4.9752723425626755e-03</internalNodes>
          <leafValues>
            2.5000289082527161e-01 -9.3075442314147949e-01</leafValues></_>
        <_>
          <internalNodes>
            0 -1 8 1.1094392277300358e-02</internalNodes>
          <leafValues>
            -8.9064759016036987e-01 2.3170241713523865e-01</leafValues></_></weakClassifiers></_>
    <!-- stage 3 -->
    <_>
      <maxWeakCount>4</maxWeakCount>
      <stageThreshold>-6.7899030447006226e-01</stageThreshold>
      <weakClassifiers>
        <_>
          <internalNodes>
            0 -1 18 5.9961779043078423e-03</internalNodes>
          <leafValues>
            2.4301965534687042e-01 -7.0777153968811035e-01</leafValues></_>
        <_>
          <internalNodes>
            0 -1 20 2.3044073954224586e-02</internalNodes>
          <leafValues>
            -7.6605147123336792e-01 2.0192275941371918e-01</leafValues></_>
        <_>
          <internalNodes>
            0 -1 11 1.4273888664320111e-03</internalNodes>
          <leafValues>
            5.2460956573486328e-01 -3.8507282733917236e-01</leafValues></_>
        <_>
          <internalNodes>
            0 -1 3 1.2283820658922195e-02</internalNodes>
          <leafValues>
            -7.5992482900619507e-01 2.7022314071655273e-01</leafValues></_></weakClassifiers></_>
    <!-- stage 4 -->
    <_>
      <maxWeakCount>3</maxWeakCount>
      <stageThreshold>-4.0086424350738525e-01</stageThreshold>
      <weakClassifiers>
        <_>
          <internalNodes>
            0 -1 10 1.5896933618932962e-03</internalNodes>
          <leafValues>
            1.5742896497249603e-01 -7.1803998947143555e-01</leafValues></_>
        <_>
          <internalNodes>
            0 -1 2 2.8546348214149475e-02</internalNodes>
          <leafValues>
            2.4388955533504486e-01 -7.9072988033294678e-01</leafValues></_>
        <_>
          <internalNodes>
            0 -1 13 6.9274506531655788e-03</internalNodes>
          <leafValues>
            2.3243670165538788e-01 -7.1919858455657959e-01</leafValues></_></weakClassifiers></_>
    <!-- stage 5 -->
    <_>
      <maxWeakCount>5</maxWeakCount>
      <stageThreshold>-9.7178190946578979e-01</stageThreshold>
      <weakClassifiers>
        <_>
          <internalNodes>
            0 -1 12 2.0906204357743263e-02</internalNodes>
          <leafValues>
            -5.2603775262832642e-01 3.1771817803382874e-01</leafValues></_>
        <_>
          <internalNodes>
            0 -1 7 1.8687880365177989e-03</internalNodes>
          <leafValues>
            5.0371795892715454e-01 -4.0763416886329651e-01</leafValues></_>
        <_>
          <internalNodes>
            0 -1 0 6.2942304648458958e-03</internalNodes>
          <leafValues>
            -5.6019610166549683e-01 2.7621537446975708e-01</leafValues></_>
        <_>
          <internalNodes>
            0 -1 21 1.5503671951591969e-02</internalNodes>
          <leafValues>
            -7.1881687641143799e-01 1.9729973375797272e-01</leafValues></_>
        <_>
          <internalNodes>
            0 -1 1 1.5960682183504105e-02</internalNodes>
          <leafValues>
            -5.1162517070770264e-01 3.0717417597770691e-01</leafValues></_></weakClassifiers></_>
    <!-- stage 6 -->
    <_>
      <maxWeakCount>5</maxWeakCount>
      <stageThreshold>-7.2119295597076416e-01</stageThreshold>
      <weakClassifiers>
        <_>
          <internalNodes>
            0 -1 14 7.1476520970463753e-03</internalNodes>
          <leafValues>
            1.0706884413957596e-01 -6.6925638914108276e-01</leafValues></_>
        <_>
          <internalNodes>
            0 -1 12 3.0380941927433014e-02</internalNodes>
          <leafValues>
            -3.1629815697669983e-01 4.3044686317443848e-01</leafValues></_>
        <_>
          <internalNodes>
            0 -1 6 4.6982049942016602e-02</internalNodes>
          <leafValues>
            1.5515898168087006e-01 -8.8147056102752686e-01</leafValues></_>
        <_>
          <internalNodes>
            0 -1 4 1.2430489994585514e-02</internalNodes>
          <leafValues>
            1.5868709981441498e-01 -7.9864031076431274e-01</leafValues></_>
        <_>
          <internalNodes>
            0 -1 19 1.1435820721089840e-02</internalNodes>
          <leafValues>
            -8.2599312067031860e-01 1.3151767849922180e-01</leafValues></_></weakClassifiers></_></stages>
  <features>
    <_>
      <rect>
        0 4 8 8 23</rect></_>
    <_>
      <rect>
        0 8 8 8 0</rect></_>
    <_>
      <rect>
        0 12 8 8 1</rect></_>
    <_>
      <rect>
        4 4 8 8 1</rect></_>
    <_>
      <rect>
        4 4 8 8 6</rect></_>
    <_>
      <rect>
        4 4 8 8 32</rect></_>
    <_>
      <rect>
        4 8 8 8 2</rect></_>
    <_>
      <rect>
        4 8 8 8 13</rect></_>
    <_>
      <rect>
        4 8 8 8 20</rect></_>
    <_>
      <rect>
        4 12 8 8 14</rect></_>
    <_>
      <rect>
        4 12 8 8 15</rect></_>
    <_>
      <rect>
        4 12 8 8 17</rect></_>
    <_>
      <rect>
        8 0 8 8 14</rect></_>
    <_>
      <rect>
        8 4 8 8 6</rect></_>
    <_>
      <rect>
        8 4 8 8 22</rect></_>
    <_>
      <rect>
        8 4 8 8 24</rect></_>
    <_>
      <rect>
        8 8 8 8 28</rect></_>
    <_>
      <rect>
        8 8 8 8 29</rect></_>
    <_>
      <rect>
        8 12 8 8 4</rect></_>
    <_>
      <rect>
        8 12 8 8 28</rect></_>
    <_>
      <rect>
        8 12 8 8 29</rect></_>
    <_>
      <rect>
        8 12 8 8 30</rect></_></features></cascade>
</opencv_storage>
