<?xml version="1.0"?>
<opencv_storage>
<cascade>
  <stageType>BOOST</stageType>
  <featureType>HOG</featureType>
  <height>34</height>
  <width>24</width>
  <stageParams>
    <boostType>GAB</boostType>
    <minHitRate>9.4999998807907104e-01</minHitRate>
    <maxFalseAlarm>5.0000000000000000e-01</maxFalseAlarm>
    <weightTrimRate>9.4999999999999996e-01</weightTrimRate>
    <maxDepth>1</maxDepth>
    <maxWeakCount>100</maxWeakCount></stageParams>
  <featureParams>
    <maxCatCount>0</maxCatCount>
    <featSize>36</featSize></featureParams>
  <stageNum>10</stageNum>
  <stages>
    <!-- stage 0 -->
    <_>
      <maxWeakCount>3</maxWeakCount>
      <stageThreshold>-3.9502704143524170e-01</stageThreshold>
      <weakClassifiers>
        <_>
          <internalNodes>
            0 -1 20 1.7976090312004089e-02</internalNodes>
          <leafValues>
            -8.0881917476654053e-01 1.7206655442714691e-01</leafValues></_>
        <_>
          <internalNodes>
            0 -1 78 1.5951838344335556e-02</internalNodes>
          <leafValues>
            -8.8118821382522583e-01 2.0336154103279114e-01</leafValues></_>
        <_>
          <internalNodes>
            0 -1 36 1.6994193196296692e-02</internalNodes>
          <leafValues>
            -5.9596657752990723e-01 3.1409463286399841e-01</leafValues></_></weakClassifiers></_>
    <!-- stage 1 -->
    <_>
      <maxWeakCount>3</maxWeakCount>
      <stageThreshold>-3.4010794758796692e-01</stageThreshold>
      <weakClassifiers>
        <_>
          <internalNodes>
            0 -1 54 2.4569950997829437e-02</internalNodes>
          <leafValues>
            1.1096774041652679e-01 -7.4704277515411377e-01</leafValues></_>
        <_>
          <internalNodes>
            0 -1 48 1.9954729825258255e-02</internalNodes>
          <leafValues>
            2.1381965279579163e-01 -6.1600005626678467e-01</leafValues></_>
        <_>
          <internalNodes>
            0 -1 71 1.5982963144779205e-02</internalNodes>
          <leafValues>
            -6.0871052742004395e-01 1.9311517477035522e-01</leafValues></_></weakClassifiers></_>
    <!-- stage 2 -->
    <_>
      <maxWeakCount>6</maxWeakCount>
      <stageThreshold>-8.7384426593780518e-01</stageThreshold>
      <weakClassifiers>
        <_>
          <internalNodes>
            0 -1 62 2.3194536566734314e-02</internalNodes>
          <leafValues>
            -6.0109454393386841e-01 6.4405323937535286e-03</leafValues></_>
        <_>
          <internalNodes>
            0 -1 51 1.7124745994806290e-02</internalNodes>
          <leafValues>
            -6.0123598575592041e-01 1.6873221099376678e-01</leafValues></_>
        <_>
          <internalNodes>
            0 -1 68 1.2300760485231876e-02</internalNodes>
          <leafValues>
            -5.7661712169647217e-01 1.9021832942962646e-01</leafValues></_>
        <_>
          <internalNodes>
            0 -1 58 1.5407079830765724e-02</internalNodes>
          <leafValues>
            2.1091364324092865e-01 -4.6477675437927246e-01</leafValues></_>
        <_>
          <internalNodes>
            0 -1 44 1.7910663038492203e-02</internalNodes>
          <leafValues>
            -5.7442998886108398e-01 1.6596855223178864e-01</leafValues></_>
        <_>
          <internalNodes>
            0 -1 42 3.2088406383991241e-02</internalNodes>
          <leafValues>
            -2.4593850970268250e-01 4.0750646591186523e-01</leafValues></_></weakClassifiers></_>
    <!-- stage 3 -->
    <_>
      <maxWeakCount>7</maxWeakCount>
      <stageThreshold>-5.2570658922195435e-01</stageThreshold>
      <weakClassifiers>
        <_>
          <internalNodes>
            0 -1 60 1.6443908214569092e-02</internalNodes>
          <leafValues>
            2.1402550861239433e-02 -5.7412093877792358e-01</leafValues></_>
        <_>
          <internalNodes>
            0 -1 73 1.7516586929559708e-02</internalNodes>
          <leafValues>
            -4.8289757966995239e-01 1.8191531300544739e-01</leafValues></_>
        <_>
          <internalNodes>
            0 -1 16 2.8929824009537697e-02</internalNodes>
          <leafValues>
            1.6907955706119537e-01 -5.3864604234695435e-01</leafValues></_>
        <_>
          <internalNodes>
            0 -1 39 2.2470479831099510e-02</internalNodes>
          <leafValues>
            1.8939949572086334e-01 -4.7202751040458679e-01</leafValues></_>
        <_>
          <internalNodes>
            0 -1 14 8.7478235363960266e-03</internalNodes>
          <leafValues>
            -6.2196278572082520e-01 1.3546094298362732e-01</leafValues></_>
        <_>
          <internalNodes>
            0 -1 63 3.7627153098583221e-02</internalNodes>
          <leafValues>
            1.3278678059577942e-01 -5.5376213788986206e-01</leafValues></_>
        <_>
          <internalNodes>
            0 -1 32 9.1918408870697021e-03</internalNodes>
          <leafValues>
            -8.0051958560943604e-01 8.8221430778503418e-02</leafValues></_></weakClassifiers></_>
    <!-- stage 4 -->
    <_>
      <maxWeakCount>8</maxWeakCount>
      <stageThreshold>-9.8279291391372681e-01</stageThreshold>
      <weakClassifiers>
        <_>
          <internalNodes>
            0 -1 0 4.2140811681747437e-02</internalNodes>
          <leafValues>
            -4.4725736975669861e-01 1.4087083935737610e-01</leafValues></_>
        <_>
          <internalNodes>
            0 -1 33 4.1785068809986115e-02</internalNodes>
          <leafValues>
            -2.4135830998420715e-01 3.7230277061462402e-01</leafValues></_>
        <_>
          <internalNodes>
            0 -1 45 5.7852156460285187e-02</internalNodes>
          <leafValues>
            -1.2133272737264633e-01 6.2705719470977783e-01</leafValues></_>
        <_>
          <internalNodes>
            0 -1 61 1.6387635841965675e-02</internalNodes>
          <leafValues>
            3.2504796981811523e-01 -2.7002039551734924e-01</leafValues></_>
        <_>
          <internalNodes>
            0 -1 26 1.8890779465436935e-02</internalNodes>
          <leafValues>
            -5.0973856449127197e-01 1.5026877820491791e-01</leafValues></_>
        <_>
          <internalNodes>
            0 -1 15 1.4145993627607822e-02</internalNodes>
          <leafValues>
            -4.2074003815650940e-01 1.8332794308662415e-01</leafValues></_>
        <_>
          <internalNodes>
            0 -1 67 3.1095402315258980e-02</internalNodes>
          <leafValues>
            1.6655230522155762e-01 -4.3002560734748840e-01</leafValues></_>
        <_>
          <internalNodes>
            0 -1 59 1.5777088701725006e-02</internalNodes>
          <leafValues>
            1.4394253492355347e-01 -4.2005625367164612e-01</leafValues></_></weakClassifiers></_>
    <!-- stage 5 -->
    <_>
      <maxWeakCount>10</maxWeakCount>
      <stageThreshold>-8.3621013164520264e-01</stageThreshold>
      <weakClassifiers>
        <_>
          <internalNodes>
            0 -1 3 2.0439460873603821e-02</internalNodes>
          <leafValues>
            -3.8143381476402283e-02 -4.9541029334068298e-01</leafValues></_>
        <_>
          <internalNodes>
            0 -1 38 9.2152245342731476e-03</internalNodes>
          <leafValues>
            -6.5171378850936890e-01 1.0545782744884491e-01</leafValues></_>
        <_>
          <internalNodes>
            0 -1 36 1.3952568173408508e-02</internalNodes>
          <leafValues>
            -5.7517963647842407e-01 1.2991951406002045e-01</leafValues></_>
        <_>
          <internalNodes>
            0 -1 9 3.6787502467632294e-02</internalNodes>
          <leafValues>
            -2.4034802615642548e-01 2.8171026706695557e-01</leafValues></_>
        <_>
          <internalNodes>
            0 -1 27 1.9388824701309204e-02</internalNodes>
          <leafValues>
            -4.2680248618125916e-01 1.4871050417423248e-01</leafValues></_>
        <_>
          <internalNodes>
            0 -1 42 1.7232635989785194e-02</internalNodes>
          <leafValues>
            -3.4992334246635437e-01 1.6882096230983734e-01</leafValues></_>
        <_>
          <internalNodes>
            0 -1 5 3.2122328877449036e-02</internalNodes>
          <leafValues>
            1.3621418178081512e-01 -4.2247548699378967e-01</leafValues></_>
        <_>
          <internalNodes>
            0 -1 75 8.1901457160711288e-03</internalNodes>
          <leafValues>
            -5.8782249689102173e-01 8.2458525896072388e-02</leafValues></_>
        <_>
          <internalNodes>
            0 -1 58 1.8951060250401497e-02</internalNodes>
          <leafValues>
            1.1290334165096283e-01 -4.6267616748809814e-01</leafValues></_>
        <_>
          <internalNodes>
            0 -1 66 4.1166845709085464e-02</internalNodes>
          <leafValues>
            9.2497304081916809e-02 -5.1630675792694092e-01</leafValues></_></weakClassifiers></_>
    <!-- stage 6 -->
    <_>
      <maxWeakCount>12</maxWeakCount>
      <stageThreshold>-7.2825109958648682e-01</stageThreshold>
      <weakClassifiers>
        <_>
          <internalNodes>
            0 -1 60 1.1135359294712543e-02</internalNodes>
          <leafValues>
            -1.6198704019188881e-02 -4.4473248720169067e-01</leafValues></_>
        <_>
          <internalNodes>
            0 -1 73 1.1015111580491066e-02</internalNodes>
          <leafValues>
            -6.5908777713775635e-01 7.4985429644584656e-02</leafValues></_>
        <_>
          <internalNodes>
            0 -1 56 1.0913271456956863e-02</internalNodes>
          <leafValues>
            3.6884281039237976e-01 -1.6001713275909424e-01</leafValues></_>
        <_>
          <internalNodes>
            0 -1 65 1.6939932480454445e-02</internalNodes>
          <leafValues>
            -5.1473617553710938e-01 1.3527952134609222e-01</leafValues></_>
        <_>
          <internalNodes>
            0 -1 35 2.0113863050937653e-02</internalNodes>
          <leafValues>
            -3.2039928436279297e-01 1.6825824975967407e-01</leafValues></_>
        <_>
          <internalNodes>
            0 -1 44 2.3654323071241379e-02</internalNodes>
          <leafValues>
            -3.8308465480804443e-01 1.3921441137790680e-01</leafValues></_>
        <_>
          <internalNodes>
            0 -1 40 1.7628937959671021e-02</internalNodes>
          <leafValues>
            1.8528614938259125e-01 -2.7788564562797546e-01</leafValues></_>
        <_>
          <internalNodes>
            0 -1 45 7.0699296891689301e-02</internalNodes>
          <leafValues>
            -1.0604004561901093e-01 5.2944236993789673e-01</leafValues></_>
        <_>
          <internalNodes>
            0 -1 41 1.6464363783597946e-02</internalNodes>
          <leafValues>
            -3.8717052340507507e-01 1.3691318035125732e-01</leafValues></_>
        <_>
          <internalNodes>
            0 -1 34 3.0489161610603333e-02</internalNodes>
          <leafValues>
            1.2946096062660217e-01 -3.6654189229011536e-01</leafValues></_>
        <_>
          <internalNodes>
            0 -1 74 1.3274698518216610e-02</internalNodes>
          <leafValues>
            -5.1656508445739746e-01 9.0849742293357849e-02</leafValues></_>
        <_>
          <internalNodes>
            0 -1 70 2.7863817289471626e-02</internalNodes>
          <leafValues>
            1.2125854194164276e-01 -3.9748212695121765e-01</leafValues></_></weakClassifiers></_>
    <!-- stage 7 -->
    <_>
      <maxWeakCount>15</maxWeakCount>
      <stageThreshold>-7.2055494785308838e-01</stageThreshold>
      <weakClassifiers>
        <_>
          <internalNodes>
            0 -1 57 1.5923678874969482e-02</internalNodes>
          <leafValues>
            -6.0821640491485596e-01 -1.2317257374525070e-01</leafValues></_>
        <_>
          <internalNodes>
            0 -1 7 9.7060445696115494e-03</internalNodes>
          <leafValues>
            1.8796122074127197e-01 -2.4847650527954102e-01</leafValues></_>
        <_>
          <internalNodes>
            0 -1 52 1.4684034511446953e-02</internalNodes>
          <leafValues>
            -5.1441013813018799e-01 1.3247816264629364e-01</leafValues></_>
        <_>
          <internalNodes>
            0 -1 46 6.7224934697151184e-02</internalNodes>
          <leafValues>
            -9.4664610922336578e-02 6.8421202898025513e-01</leafValues></_>
        <_>
          <internalNodes>
            0 -1 53 2.7056671679019928e-02</internalNodes>
          <leafValues>
            1.1608736217021942e-01 -4.5515796542167664e-01</leafValues></_>
        <_>
          <internalNodes>
            0 -1 31 4.5918915420770645e-02</internalNodes>
          <leafValues>
            9.3135707080364227e-02 -5.9631603956222534e-01</leafValues></_>
        <_>
          <internalNodes>
            0 -1 37 1.4835553243756294e-02</internalNodes>
          <leafValues>
            -4.3367663025856018e-01 1.0046707838773727e-01</leafValues></_>
        <_>
          <internalNodes>
            0 -1 12 1.3684691861271858e-02</internalNodes>
          <leafValues>
            -4.7741818428039551e-01 8.9012213051319122e-02</leafValues></_>
        <_>
          <internalNodes>
            0 -1 4 1.7297115176916122e-02</internalNodes>
          <leafValues>
            1.1816532909870148e-01 -3.7701672315597534e-01</leafValues></_>
        <_>
          <internalNodes>
            0 -1 13 7.6611973345279694e-03</internalNodes>
          <leafValues>
            -5.0514328479766846e-01 9.1163836419582367e-02</leafValues></_>
        <_>
          <internalNodes>
            0 -1 10 7.5447000563144684e-02</internalNodes>
          <leafValues>
            -8.3625443279743195e-02 5.2455925941467285e-01</leafValues></_>
        <_>
          <internalNodes>
            0 -1 77 5.5335920304059982e-02</internalNodes>
          <leafValues>
            -1.0492689162492752e-01 4.7550535202026367e-01</leafValues></_>
        <_>
          <internalNodes>
            0 -1 21 1.1999172158539295e-02</internalNodes>
          <leafValues>
            -3.9908790588378906e-01 1.3067148625850677e-01</leafValues></_>
        <_>
          <internalNodes>
            0 -1 19 3.4678082913160324e-02</internalNodes>
          <leafValues>
            -1.7727319896221161e-01 2.5447955727577209e-01</leafValues></_>
        <_>
          <internalNodes>
            0 -1 69 7.4059501290321350e-02</internalNodes>
          <leafValues>
            -9.0645559132099152e-02 5.5630552768707275e-01</leafValues></_></weakClassifiers></_>
    <!-- stage 8 -->
    <_>
      <maxWeakCount>14</maxWeakCount>
      <stageThreshold>-7.4319648742675781e-01</stageThreshold>
      <weakClassifiers>
        <_>
          <internalNodes>
            0 -1 47 1.4039356261491776e-02</internalNodes>
          <leafValues>
            -2.0180562511086464e-02 -4.4750058650970459e-01</leafValues></_>
        <_>
          <internalNodes>
            0 -1 8 1.2535519897937775e-02</internalNodes>
          <leafValues>
            3.0030044913291931e-01 -2.0517159998416901e-01</leafValues></_>
        <_>
          <internalNodes>
            0 -1 1 3.6813378334045410e-02</internalNodes>
          <leafValues>
            -1.8765950202941895e-01 2.6821723580360413e-01</leafValues></_>
        <_>
          <internalNodes>
            0 -1 72 1.4849537983536720e-02</internalNodes>
          <leafValues>
            -3.9754512906074524e-01 1.1199839413166046e-01</leafValues></_>
        <_>
          <internalNodes>
            0 -1 29 2.6293877512216568e-02</internalNodes>
          <leafValues>
            1.5153342485427856e-01 -5.0664335489273071e-01</leafValues></_>
        <_>
          <internalNodes>
            0 -1 23 2.5497727096080780e-02</internalNodes>
          <leafValues>
            -2.7527996897697449e-01 1.3330152630805969e-01</leafValues></_>
        <_>
          <internalNodes>
            0 -1 62 5.4026499390602112e-02</internalNodes>
          <leafValues>
            -7.9548902809619904e-02 4.0761709213256836e-01</leafValues></_>
        <_>
          <internalNodes>
            0 -1 36 2.1966863423585892e-02</internalNodes>
          <leafValues>
            -2.9316633939743042e-01 1.4002542197704315e-01</leafValues></_>
        <_>
          <internalNodes>
            0 -1 55 5.4032269865274429e-02</internalNodes>
          <leafValues>
            4.6107195317745209e-02 -7.5094085931777954e-01</leafValues></_>
        <_>
          <internalNodes>
            0 -1 17 1.8448000773787498e-02</internalNodes>
          <leafValues>
            1.2834987044334412e-01 -2.9143497347831726e-01</leafValues></_>
        <_>
          <internalNodes>
            0 -1 25 3.7513114511966705e-02</internalNodes>
          <leafValues>
            8.1042855978012085e-02 -4.4586575031280518e-01</leafValues></_>
        <_>
          <internalNodes>
            0 -1 22 3.6049820482730865e-02</internalNodes>
          <leafValues>
            1.1032553762197495e-01 -3.3175572752952576e-01</leafValues></_>
        <_>
          <internalNodes>
            0 -1 76 1.5457721427083015e-02</internalNodes>
          <leafValues>
            -5.1285964250564575e-01 8.0787979066371918e-02</leafValues></_>
        <_>
          <internalNodes>
            0 -1 6 6.0879536904394627e-03</internalNodes>
          <leafValues>
            -6.5211510658264160e-01 5.0259985029697418e-02</leafValues></_></weakClassifiers></_>
    <!-- stage 9 -->
    <_>
      <maxWeakCount>16</maxWeakCount>
      <stageThreshold>-5.5768561363220215e-01</stageThreshold>
      <weakClassifiers>
        <_>
          <internalNodes>
            0 -1 30 1.5310758724808693e-02</internalNodes>
          <leafValues>
            1.5508021414279938e-01 -3.4579437971115112e-01</leafValues></_>
        <_>
          <internalNodes>
            0 -1 73 2.7907555922865868e-02</internalNodes>
          <leafValues>
            -1.8399831652641296e-01 2.3591324687004089e-01</leafValues></_>
        <_>
          <internalNodes>
            0 -1 49 1.4725353568792343e-02</internalNodes>
          <leafValues>
            1.5558396279811859e-01 -2.7953979372978210e-01</leafValues></_>
        <_>
          <internalNodes>
            0 -1 50 6.4414992928504944e-02</internalNodes>
          <leafValues>
            1.0769305378198624e-01 -6.1728209257125854e-01</leafValues></_>
        <_>
          <internalNodes>
            0 -1 28 2.2235538810491562e-02</internalNodes>
          <leafValues>
            1.0786873847246170e-01 -3.6945700645446777e-01</leafValues></_>
        <_>
          <internalNodes>
            0 -1 64 2.1159689873456955e-02</internalNodes>
          <leafValues>
            -3.3082512021064758e-01 1.4276914298534393e-01</leafValues></_>
        <_>
          <internalNodes>
            0 -1 24 6.1372153460979462e-02</internalNodes>
          <leafValues>
            5.8184806257486343e-02 -7.4084281921386719e-01</leafValues></_>
        <_>
          <internalNodes>
            0 -1 18 5.8806754648685455e-02</internalNodes>
          <leafValues>
            2.8189350850880146e-03 -7.0446586608886719e-01</leafValues></_>
        <_>
          <internalNodes>
            0 -1 67 2.4462599307298660e-02</internalNodes>
          <leafValues>
            1.6664804518222809e-01 -2.7690854668617249e-01</leafValues></_>
        <_>
          <internalNodes>
            0 -1 62 3.8172744214534760e-02</internalNodes>
          <leafValues>
            -1.8249699473381042e-01 2.1047982573509216e-01</leafValues></_>
        <_>
          <internalNodes>
            0 -1 2 1.1422300711274147e-02</internalNodes>
          <leafValues>
            -3.8918611407279968e-01 9.7395956516265869e-02</leafValues></_>
        <_>
          <internalNodes>
            0 -1 71 3.2455977052450180e-02</internalNodes>
          <leafValues>
            -1.5396796166896820e-01 2.4355927109718323e-01</leafValues></_>
        <_>
          <internalNodes>
            0 -1 11 3.7554107606410980e-02</internalNodes>
          <leafValues>
            6.5850935876369476e-02 -4.1532739996910095e-01</leafValues></_>
        <_>
          <internalNodes>
            0 -1 33 4.8398800194263458e-02</internalNodes>
          <leafValues>
            -1.2480902671813965e-01 2.7642822265625000e-01</leafValues></_>
        <_>
          <internalNodes>
            0 -1 43 5.6881479918956757e-02</internalNodes>
          <leafValues>
            -8.5549309849739075e-02 4.5676103234291077e-01</leafValues></_>
        <_>
          <internalNodes>
            0 -1 35 2.3916658014059067e-02</internalNodes>
          <leafValues>
            -2.3109734058380127e-01 1.7205999791622162e-01</leafValues></_></weakClassifiers></_></stages>
  <features>
    <_>
      <rect>
        0 4 8 8 9</rect></_>
    <_>
      <rect>
        0 4 8 8 17</rect></_>
    <_>
      <rect>
        0 4 8 8 23</rect></_>
    <_>
      <rect>
        0 4 8 8 31</rect></_>
    <_>
      <rect>
        0 4 8 8 32</rect></_>
    <_>
      <rect>
        0 8 8 8 4</rect></_>
    <_>
      <rect>
        0 12 8 8 7</rect></_>
    <_>
      <rect>
        0 12 8 8 15</rect></_>
    <_>
      <rect>
        0 12 8 8 17</rect></_>
    <_>
      <rect>
        0 12 8 8 27</rect></_>
    <_>
      <rect>
        0 16 8 8 11</rect></_>
    <_>
      <rect>
        0 16 8 8 18</rect></_>
    <_>
      <rect>
        4 0 8 8 1</rect></_>
    <_>
      <rect>
        4 0 8 8 23</rect></_>
    <_>
      <rect>
        4 0 8 8 24</rect></_>
    <_>
      <rect>
        4 0 8 8 25</rect></_>
    <_>
      <rect>
        4 0 8 8 31</rect></_>
    <_>
      <rect>
        4 0 8 8 32</rect></_>
    <_>
      <rect>
        4 0 8 8 35</rect></_>
    <_>
      <rect>
        4 4 8 8 8</rect></_>
    <_>
      <rect>
        4 4 8 8 9</rect></_>
    <_>
      <rect>
        4 4 8 8 12</rect></_>
    <_>
      <rect>
        4 4 8 8 18</rect></_>
    <_>
      <rect>
        4 4 8 8 30</rect></_>
    <_>
      <rect>
        4 8 8 8 1</rect></_>
    <_>
      <rect>
        4 8 8 8 2</rect></_>
    <_>
      <rect>
        4 8 8 8 10</rect></_>
    <_>
      <rect>
        4 8 8 8 11</rect></_>
    <_>
      <rect>
        4 8 8 8 13</rect></_>
    <_>
      <rect>
        4 8 8 8 23</rect></_>
    <_>
      <rect>
        4 8 8 8 24</rect></_>
    <_>
      <rect>
        4 8 8 8 26</rect></_>
    <_>
      <rect>
        4 8 8 8 30</rect></_>
    <_>
      <rect>
        4 12 8 8 19</rect></_>
    <_>
      <rect>
        4 12 8 8 22</rect></_>
    <_>
      <rect>
        4 12 8 8 32</rect></_>
    <_>
      <rect>
        4 12 8 8 33</rect></_>
    <_>
      <rect>
        4 12 8 8 34</rect></_>
    <_>
      <rect>
        4 16 8 8 3</rect></_>
    <_>
      <rect>
        4 16 8 8 6</rect></_>
    <_>
      <rect>
        4 16 8 8 7</rect></_>
    <_>
      <rect>
        4 16 8 8 13</rect></_>
    <_>
      <rect>
        8 0 8 8 15</rect></_>
    <_>
      <rect>
        8 0 8 8 33</rect></_>
    <_>
      <rect>
        8 4 8 8 0</rect></_>
    <_>
      <rect>
        8 4 8 8 15</rect></_>
    <_>
      <rect>
        8 4 8 8 21</rect></_>
    <_>
      <rect>
        8 4 8 8 22</rect></_>
    <_>
      <rect>
        8 4 8 8 24</rect></_>
    <_>
      <rect>
        8 4 8 8 25</rect></_>
    <_>
      <rect>
        8 4 8 8 28</rect></_>
    <_>
      <rect>
        8 4 8 8 30</rect></_>
    <_>
      <rect>
        8 8 8 8 0</rect></_>
    <_>
      <rect>
        8 8 8 8 3</rect></_>
    <_>
      <rect>
        8 8 8 8 4</rect></_>
    <_>
      <rect>
        8 8 8 8 9</rect></_>
    <_>
      <rect>
        8 8 8 8 22</rect></_>
    <_>
      <rect>
        8 8 8 8 35</rect></_>
    <_>
      <rect>
        8 12 8 8 5</rect></_>
    <_>
      <rect>
        8 12 8 8 6</rect></_>
    <_>
      <rect>
        8 12 8 8 7</rect></_>
    <_>
      <rect>
        8 12 8 8 8</rect></_>
    <_>
      <rect>
        8 12 8 8 18</rect></_>
    <_>
      <rect>
        8 12 8 8 22</rect></_>
    <_>
      <rect>
        8 16 8 8 10</rect></_>
    <_>
      <rect>
        8 16 8 8 11</rect></_>
    <_>
      <rect>
        8 16 8 8 19</rect></_>
    <_>
      <rect>
        8 16 8 8 20</rect></_>
    <_>
      <rect>
        8 16 8 8 24</rect></_>
    <_>
      <rect>
        8 16 8 8 28</rect></_>
    <_>
      <rect>
        8 16 8 8 34</rect></_>
    <_>
      <rect>
        0 0 8 16 1</rect></_>
    <_>
      <rect>
        0 0 8 16 23</rect></_>
    <_>
      <rect>
        0 0 8 16 24</rect></_>
    <_>
      <rect>
        0 0 8 16 25</rect></_>
    <_>
      <rect>
        4 0 8 16 5</rect></_>
    <_>
      <rect>
        8 0 8 16 1</rect></_>
    <_>
      <rect>
        8 0 8 16 15</rect></_>
    <_>
      <rect>
        8 0 8 16 29</rect></_></features></cascade>
</opencv_storage>
