<?xml version="1.0"?>
<opencv_storage>
<cascade>
  <stageType>BOOST</stageType>
  <featureType>HOG</featureType>
  <height>48</height>
  <width>30</width>
  <stageParams>
    <boostType>GAB</boostType>
    <minHitRate>9.4999998807907104e-01</minHitRate>
    <maxFalseAlarm>5.0000000000000000e-01</maxFalseAlarm>
    <weightTrimRate>9.4999999999999996e-01</weightTrimRate>
    <maxDepth>1</maxDepth>
    <maxWeakCount>100</maxWeakCount></stageParams>
  <featureParams>
    <maxCatCount>0</maxCatCount>
    <featSize>36</featSize></featureParams>
  <stageNum>2</stageNum>
  <stages>
    <!-- stage 0 -->
    <_>
      <maxWeakCount>2</maxWeakCount>
      <stageThreshold>-7.6577585935592651e-01</stageThreshold>
      <weakClassifiers>
        <_>
          <internalNodes>
            0 -1 2 7.0882678031921387e-02</internalNodes>
          <leafValues>
            -9.8578536510467529e-01 1.7171716690063477e-01</leafValues></_>
        <_>
          <internalNodes>
            0 -1 0 7.1056991815567017e-02</internalNodes>
          <leafValues>
            -9.3749302625656128e-01 5.4560017585754395e-01</leafValues></_></weakClassifiers></_>
    <!-- stage 1 -->
    <_>
      <maxWeakCount>2</maxWeakCount>
      <stageThreshold>-7.6124310493469238e-01</stageThreshold>
      <weakClassifiers>
        <_>
          <internalNodes>
            0 -1 1 8.0868273973464966e-02</internalNodes>
          <leafValues>
            -9.8023992776870728e-01 2.1348313987255096e-01</leafValues></_>
        <_>
          <internalNodes>
            0 -1 3 2.1389077883213758e-03</internalNodes>
          <leafValues>
            2.3515595495700836e-01 -9.7472625970840454e-01</leafValues></_></weakClassifiers></_></stages>
  <features>
    <_>
      <rect>
        0 32 8 8 7</rect></_>
    <_>
      <rect>
        4 12 8 8 20</rect></_>
    <_>
      <rect>
        8 12 8 8 32</rect></_>
    <_>
      <rect>
        12 24 8 8 32</rect></_></features></cascade>
</opencv_storage>
