<?xml version="1.0"?>
<opencv_storage>
<stage4>
  <maxWeakCount>10</maxWeakCount>
  <stageThreshold>-8.5296946763992310e-01</stageThreshold>
  <weakClassifiers>
    <_>
      <internalNodes>
        0 -1 1129 9.7352387383580208e-03</internalNodes>
      <leafValues>
        -6.0356974601745605e-01 6.3632279634475708e-01</leafValues></_>
    <_>
      <internalNodes>
        0 -1 917 4.2524680495262146e-02</internalNodes>
      <leafValues>
        -2.7158772945404053e-01 5.5946773290634155e-01</leafValues></_>
    <_>
      <internalNodes>
        0 -1 1423 4.7622211277484894e-02</internalNodes>
      <leafValues>
        -3.6622503399848938e-01 5.4064428806304932e-01</leafValues></_>
    <_>
      <internalNodes>
        0 -1 1347 2.5967590510845184e-02</internalNodes>
      <leafValues>
        -4.5851019024848938e-01 4.0488773584365845e-01</leafValues></_>
    <_>
      <internalNodes>
        0 -1 251 3.9301761426031590e-03</internalNodes>
      <leafValues>
        5.3133904933929443e-01 -2.9873839020729065e-01</leafValues></_>
    <_>
      <internalNodes>
        0 -1 445 4.1535105556249619e-03</internalNodes>
      <leafValues>
        3.7395688891410828e-01 -4.1676631569862366e-01</leafValues></_>
    <_>
      <internalNodes>
        0 -1 141 4.2988464236259460e-02</internalNodes>
      <leafValues>
        -4.0869194269180298e-01 3.6846500635147095e-01</leafValues></_>
    <_>
      <internalNodes>
        0 -1 813 1.6946353018283844e-02</internalNodes>
      <leafValues>
        -5.5440580844879150e-01 3.0597507953643799e-01</leafValues></_>
    <_>
      <internalNodes>
        0 -1 913 5.1822965033352375e-03</internalNodes>
      <leafValues>
        4.6672794222831726e-01 -3.4330779314041138e-01</leafValues></_>
    <_>
      <internalNodes>
        0 -1 973 1.7383206635713577e-02</internalNodes>
      <leafValues>
        -4.1595169901847839e-01 3.7521001696586609e-01</leafValues></_></weakClassifiers></stage4>
</opencv_storage>
