<?xml version="1.0"?>
<opencv_storage>
<stage7>
  <maxWeakCount>13</maxWeakCount>
  <stageThreshold>-6.3965469598770142e-01</stageThreshold>
  <weakClassifiers>
    <_>
      <internalNodes>
        0 -1 256 3.6987092345952988e-02</internalNodes>
      <leafValues>
        6.0858267545700073e-01 -5.1072961091995239e-01</leafValues></_>
    <_>
      <internalNodes>
        0 -1 243 3.8435118040069938e-04</internalNodes>
      <leafValues>
        5.9905058145523071e-01 -1.5196990966796875e-01</leafValues></_>
    <_>
      <internalNodes>
        0 -1 454 4.6637035906314850e-02</internalNodes>
      <leafValues>
        -3.9028197526931763e-01 3.0886563658714294e-01</leafValues></_>
    <_>
      <internalNodes>
        0 -1 1442 8.4898453205823898e-03</internalNodes>
      <leafValues>
        -5.0759381055831909e-01 2.0700947940349579e-01</leafValues></_>
    <_>
      <internalNodes>
        0 -1 805 4.7069154679775238e-03</internalNodes>
      <leafValues>
        3.7171161174774170e-01 -3.4859260916709900e-01</leafValues></_>
    <_>
      <internalNodes>
        0 -1 51 1.1238425225019455e-01</internalNodes>
      <leafValues>
        -1.9805213809013367e-01 7.6577019691467285e-01</leafValues></_>
    <_>
      <internalNodes>
        0 -1 910 3.8728557527065277e-02</internalNodes>
      <leafValues>
        -2.8625467419624329e-01 4.4938689470291138e-01</leafValues></_>
    <_>
      <internalNodes>
        0 -1 917 7.8720331192016602e-02</internalNodes>
      <leafValues>
        -2.3089160025119781e-01 5.6664270162582397e-01</leafValues></_>
    <_>
      <internalNodes>
        0 -1 1212 3.7095654755830765e-02</internalNodes>
      <leafValues>
        -4.3276679515838623e-01 3.1312429904937744e-01</leafValues></_>
    <_>
      <internalNodes>
        0 -1 416 8.3054061979055405e-03</internalNodes>
      <leafValues>
        2.7194198966026306e-01 -4.0005570650100708e-01</leafValues></_>
    <_>
      <internalNodes>
        0 -1 721 8.5836172103881836e-02</internalNodes>
      <leafValues>
        -2.2169001400470734e-01 6.7204070091247559e-01</leafValues></_>
    <_>
      <internalNodes>
        0 -1 1347 1.2844098731875420e-02</internalNodes>
      <leafValues>
        -4.6489334106445312e-01 2.6294425129890442e-01</leafValues></_>
    <_>
      <internalNodes>
        0 -1 462 4.4076710939407349e-02</internalNodes>
      <leafValues>
        -2.5930991768836975e-01 4.4345790147781372e-01</leafValues></_></weakClassifiers></stage7>
</opencv_storage>
