<?xml version="1.0"?>
<opencv_storage>
<stage6>
  <maxWeakCount>10</maxWeakCount>
  <stageThreshold>-7.3707509040832520e-01</stageThreshold>
  <weakClassifiers>
    <_>
      <internalNodes>
        0 -1 897 3.6659315228462219e-02</internalNodes>
      <leafValues>
        6.0234367847442627e-01 -5.6201779842376709e-01</leafValues></_>
    <_>
      <internalNodes>
        0 -1 825 1.6167145222425461e-02</internalNodes>
      <leafValues>
        -5.6185311079025269e-01 3.3323636651039124e-01</leafValues></_>
    <_>
      <internalNodes>
        0 -1 482 4.0422910824418068e-03</internalNodes>
      <leafValues>
        3.5003396868705750e-01 -4.2869275808334351e-01</leafValues></_>
    <_>
      <internalNodes>
        0 -1 622 1.2395711988210678e-01</internalNodes>
      <leafValues>
        -1.7960417270660400e-01 7.8041881322860718e-01</leafValues></_>
    <_>
      <internalNodes>
        0 -1 487 1.0021814703941345e-01</internalNodes>
      <leafValues>
        -2.3833034932613373e-01 6.7617505788803101e-01</leafValues></_>
    <_>
      <internalNodes>
        0 -1 507 2.3554619401693344e-02</internalNodes>
      <leafValues>
        -3.5858741402626038e-01 3.6471509933471680e-01</leafValues></_>
    <_>
      <internalNodes>
        0 -1 211 1.1815836187452078e-03</internalNodes>
      <leafValues>
        6.4968794584274292e-01 -2.2151374816894531e-01</leafValues></_>
    <_>
      <internalNodes>
        0 -1 156 1.0804254561662674e-02</internalNodes>
      <leafValues>
        2.3736791312694550e-01 -5.8244538307189941e-01</leafValues></_>
    <_>
      <internalNodes>
        0 -1 1076 7.2464491240680218e-03</internalNodes>
      <leafValues>
        -8.0256950855255127e-01 1.6758359968662262e-01</leafValues></_>
    <_>
      <internalNodes>
        0 -1 973 8.2018850371241570e-03</internalNodes>
      <leafValues>
        -5.7654350996017456e-01 1.9282291829586029e-01</leafValues></_></weakClassifiers></stage6>
</opencv_storage>
