<?xml version="1.0"?>
<opencv_storage>
<cascade>
  <stageType>BOOST</stageType>
  <featureType>HOG</featureType>
  <height>21</height>
  <width>30</width>
  <stageParams>
    <boostType>GAB</boostType>
    <minHitRate>9.4999998807907104e-01</minHitRate>
    <maxFalseAlarm>5.0000000000000000e-01</maxFalseAlarm>
    <weightTrimRate>9.4999999999999996e-01</weightTrimRate>
    <maxDepth>1</maxDepth>
    <maxWeakCount>100</maxWeakCount></stageParams>
  <featureParams>
    <maxCatCount>0</maxCatCount>
    <featSize>36</featSize></featureParams>
  <stageNum>6</stageNum>
  <stages>
    <!-- stage 0 -->
    <_>
      <maxWeakCount>1</maxWeakCount>
      <stageThreshold>5.9516131877899170e-01</stageThreshold>
      <weakClassifiers>
        <_>
          <internalNodes>
            0 -1 0 2.7399235405027866e-03</internalNodes>
          <leafValues>
            5.9516131877899170e-01 -9.8438608646392822e-01</leafValues></_></weakClassifiers></_>
    <!-- stage 1 -->
    <_>
      <maxWeakCount>2</maxWeakCount>
      <stageThreshold>-3.3098694682121277e-01</stageThreshold>
      <weakClassifiers>
        <_>
          <internalNodes>
            0 -1 4 4.3045647442340851e-02</internalNodes>
          <leafValues>
            -8.9497435092926025e-01 7.8645831346511841e-01</leafValues></_>
        <_>
          <internalNodes>
            0 -1 1 5.4840231314301491e-03</internalNodes>
          <leafValues>
            5.6398737430572510e-01 -9.8084664344787598e-01</leafValues></_></weakClassifiers></_>
    <!-- stage 2 -->
    <_>
      <maxWeakCount>2</maxWeakCount>
      <stageThreshold>-3.3683228492736816e-01</stageThreshold>
      <weakClassifiers>
        <_>
          <internalNodes>
            0 -1 7 5.3896892815828323e-02</internalNodes>
          <leafValues>
            -8.1974422931671143e-01 7.3224598169326782e-01</leafValues></_>
        <_>
          <internalNodes>
            0 -1 2 4.6402383595705032e-02</internalNodes>
          <leafValues>
            -7.3625141382217407e-01 4.8291191458702087e-01</leafValues></_></weakClassifiers></_>
    <!-- stage 3 -->
    <_>
      <maxWeakCount>1</maxWeakCount>
      <stageThreshold>2.4757176637649536e-01</stageThreshold>
      <weakClassifiers>
        <_>
          <internalNodes>
            0 -1 8 4.4126845896244049e-03</internalNodes>
          <leafValues>
            2.4757176637649536e-01 -9.3361496925354004e-01</leafValues></_></weakClassifiers></_>
    <!-- stage 4 -->
    <_>
      <maxWeakCount>2</maxWeakCount>
      <stageThreshold>-5.0996112823486328e-01</stageThreshold>
      <weakClassifiers>
        <_>
          <internalNodes>
            0 -1 4 5.7654812932014465e-02</internalNodes>
          <leafValues>
            -7.9631900787353516e-01 3.3522728085517883e-01</leafValues></_>
        <_>
          <internalNodes>
            0 -1 5 1.0761154815554619e-02</internalNodes>
          <leafValues>
            2.8635787963867188e-01 -9.4931739568710327e-01</leafValues></_></weakClassifiers></_>
    <!-- stage 5 -->
    <_>
      <maxWeakCount>2</maxWeakCount>
      <stageThreshold>-2.5947687029838562e-01</stageThreshold>
      <weakClassifiers>
        <_>
          <internalNodes>
            0 -1 6 1.2120809406042099e-02</internalNodes>
          <leafValues>
            -6.6640865802764893e-01 5.3868299722671509e-01</leafValues></_>
        <_>
          <internalNodes>
            0 -1 3 1.1858369223773479e-02</internalNodes>
          <leafValues>
            -7.1878987550735474e-01 4.0693178772926331e-01</leafValues></_></weakClassifiers></_></stages>
  <features>
    <_>
      <rect>
        0 0 8 8 30</rect></_>
    <_>
      <rect>
        0 0 8 8 35</rect></_>
    <_>
      <rect>
        0 4 8 8 1</rect></_>
    <_>
      <rect>
        0 4 8 8 23</rect></_>
    <_>
      <rect>
        4 0 8 8 2</rect></_>
    <_>
      <rect>
        8 0 8 8 31</rect></_>
    <_>
      <rect>
        8 4 8 8 30</rect></_>
    <_>
      <rect>
        12 0 8 8 14</rect></_>
    <_>
      <rect>
        12 4 8 8 0</rect></_></features></cascade>
</opencv_storage>
