<?xml version="1.0"?>
<opencv_storage>
<cascade>
  <stageType>BOOST</stageType>
  <featureType>HOG</featureType>
  <height>45</height>
  <width>25</width>
  <stageParams>
    <boostType>GAB</boostType>
    <minHitRate>9.4999998807907104e-01</minHitRate>
    <maxFalseAlarm>5.0000000000000000e-01</maxFalseAlarm>
    <weightTrimRate>9.4999999999999996e-01</weightTrimRate>
    <maxDepth>1</maxDepth>
    <maxWeakCount>100</maxWeakCount></stageParams>
  <featureParams>
    <maxCatCount>0</maxCatCount>
    <featSize>36</featSize></featureParams>
  <stageNum>2</stageNum>
  <stages>
    <!-- stage 0 -->
    <_>
      <maxWeakCount>2</maxWeakCount>
      <stageThreshold>-3.5874745249748230e-01</stageThreshold>
      <weakClassifiers>
        <_>
          <internalNodes>
            0 -1 4 8.4257870912551880e-02</internalNodes>
          <leafValues>
            -9.7819626331329346e-01 8.2608693838119507e-01</leafValues></_>
        <_>
          <internalNodes>
            0 -1 3 5.6557111442089081e-02</internalNodes>
          <leafValues>
            -9.7426229715347290e-01 6.1944878101348877e-01</leafValues></_></weakClassifiers></_>
    <!-- stage 1 -->
    <_>
      <maxWeakCount>3</maxWeakCount>
      <stageThreshold>-1.4118770360946655e+00</stageThreshold>
      <weakClassifiers>
        <_>
          <internalNodes>
            0 -1 1 4.0629954310134053e-04</internalNodes>
          <leafValues>
            -1.3725490868091583e-01 -9.7961264848709106e-01</leafValues></_>
        <_>
          <internalNodes>
            0 -1 2 6.5663598477840424e-02</internalNodes>
          <leafValues>
            -9.2182534933090210e-01 4.1511547565460205e-01</leafValues></_>
        <_>
          <internalNodes>
            0 -1 0 1.6182579565793276e-03</internalNodes>
          <leafValues>
            4.8956090211868286e-01 -9.5775282382965088e-01</leafValues></_></weakClassifiers></_></stages>
  <features>
    <_>
      <rect>
        0 24 8 8 27</rect></_>
    <_>
      <rect>
        0 24 8 8 35</rect></_>
    <_>
      <rect>
        4 12 8 8 20</rect></_>
    <_>
      <rect>
        8 12 8 8 32</rect></_>
    <_>
      <rect>
        8 28 8 8 9</rect></_></features></cascade>
</opencv_storage>
