<?xml version="1.0"?>
<opencv_storage>
<cascade>
  <stageType>BOOST</stageType>
  <featureType>HOG</featureType>
  <height>45</height>
  <width>25</width>
  <stageParams>
    <boostType>GAB</boostType>
    <minHitRate>9.4999998807907104e-01</minHitRate>
    <maxFalseAlarm>5.0000000000000000e-01</maxFalseAlarm>
    <weightTrimRate>9.4999999999999996e-01</weightTrimRate>
    <maxDepth>1</maxDepth>
    <maxWeakCount>100</maxWeakCount></stageParams>
  <featureParams>
    <maxCatCount>0</maxCatCount>
    <featSize>36</featSize></featureParams>
  <stageNum>3</stageNum>
  <stages>
    <!-- stage 0 -->
    <_>
      <maxWeakCount>2</maxWeakCount>
      <stageThreshold>-2.0388847589492798e-01</stageThreshold>
      <weakClassifiers>
        <_>
          <internalNodes>
            0 -1 0 5.5857457220554352e-02</internalNodes>
          <leafValues>
            -9.6705883741378784e-01 7.2727274894714355e-01</leafValues></_>
        <_>
          <internalNodes>
            0 -1 2 4.3746959418058395e-02</internalNodes>
          <leafValues>
            -9.3116122484207153e-01 8.4074246883392334e-01</leafValues></_></weakClassifiers></_>
    <!-- stage 1 -->
    <_>
      <maxWeakCount>2</maxWeakCount>
      <stageThreshold>-3.4995654225349426e-01</stageThreshold>
      <weakClassifiers>
        <_>
          <internalNodes>
            0 -1 4 4.5205436646938324e-02</internalNodes>
          <leafValues>
            -9.8104268312454224e-01 7.4468082189559937e-01</leafValues></_>
        <_>
          <internalNodes>
            0 -1 1 2.1892795339226723e-03</internalNodes>
          <leafValues>
            6.3108611106872559e-01 -9.5667463541030884e-01</leafValues></_></weakClassifiers></_>
    <!-- stage 2 -->
    <_>
      <maxWeakCount>2</maxWeakCount>
      <stageThreshold>-7.0790666341781616e-01</stageThreshold>
      <weakClassifiers>
        <_>
          <internalNodes>
            0 -1 3 6.1446875333786011e-02</internalNodes>
          <leafValues>
            -9.7029703855514526e-01 2.0000000298023224e-01</leafValues></_>
        <_>
          <internalNodes>
            0 -1 5 6.6676996648311615e-02</internalNodes>
          <leafValues>
            -9.0790665149688721e-01 5.0634789466857910e-01</leafValues></_></weakClassifiers></_></stages>
  <features>
    <_>
      <rect>
        0 16 8 8 26</rect></_>
    <_>
      <rect>
        0 20 8 8 35</rect></_>
    <_>
      <rect>
        0 28 8 8 7</rect></_>
    <_>
      <rect>
        4 12 8 8 20</rect></_>
    <_>
      <rect>
        4 12 8 8 32</rect></_>
    <_>
      <rect>
        8 24 8 8 17</rect></_></features></cascade>
</opencv_storage>
