<?xml version="1.0"?>
<opencv_storage>
<cascade>
  <stageType>BOOST</stageType>
  <featureType>HOG</featureType>
  <height>20</height>
  <width>25</width>
  <stageParams>
    <boostType>GAB</boostType>
    <minHitRate>9.4999998807907104e-01</minHitRate>
    <maxFalseAlarm>5.0000000000000000e-01</maxFalseAlarm>
    <weightTrimRate>9.4999999999999996e-01</weightTrimRate>
    <maxDepth>1</maxDepth>
    <maxWeakCount>100</maxWeakCount></stageParams>
  <featureParams>
    <maxCatCount>0</maxCatCount>
    <featSize>36</featSize></featureParams>
  <stageNum>6</stageNum>
  <stages>
    <!-- stage 0 -->
    <_>
      <maxWeakCount>2</maxWeakCount>
      <stageThreshold>-1.2060175091028214e-01</stageThreshold>
      <weakClassifiers>
        <_>
          <internalNodes>
            0 -1 3 4.1634239256381989e-02</internalNodes>
          <leafValues>
            -8.8508063554763794e-01 8.1787747144699097e-01</leafValues></_>
        <_>
          <internalNodes>
            0 -1 6 4.2787618935108185e-02</internalNodes>
          <leafValues>
            -8.4207153320312500e-01 7.6447892189025879e-01</leafValues></_></weakClassifiers></_>
    <!-- stage 1 -->
    <_>
      <maxWeakCount>1</maxWeakCount>
      <stageThreshold>6.4198219776153564e-01</stageThreshold>
      <weakClassifiers>
        <_>
          <internalNodes>
            0 -1 1 4.2530260980129242e-03</internalNodes>
          <leafValues>
            6.4198219776153564e-01 -9.7657865285873413e-01</leafValues></_></weakClassifiers></_>
    <!-- stage 2 -->
    <_>
      <maxWeakCount>2</maxWeakCount>
      <stageThreshold>-3.2158884406089783e-01</stageThreshold>
      <weakClassifiers>
        <_>
          <internalNodes>
            0 -1 0 4.0031701326370239e-02</internalNodes>
          <leafValues>
            -8.6996096372604370e-01 6.2016201019287109e-01</leafValues></_>
        <_>
          <internalNodes>
            0 -1 8 1.1217519640922546e-02</internalNodes>
          <leafValues>
            5.4837214946746826e-01 -8.2174110412597656e-01</leafValues></_></weakClassifiers></_>
    <!-- stage 3 -->
    <_>
      <maxWeakCount>2</maxWeakCount>
      <stageThreshold>-4.4981911778450012e-01</stageThreshold>
      <weakClassifiers>
        <_>
          <internalNodes>
            0 -1 9 4.7451738268136978e-02</internalNodes>
          <leafValues>
            -7.9183083772659302e-01 5.9923177957534790e-01</leafValues></_>
        <_>
          <internalNodes>
            0 -1 2 2.2499337792396545e-03</internalNodes>
          <leafValues>
            3.4201169013977051e-01 -8.8908082246780396e-01</leafValues></_></weakClassifiers></_>
    <!-- stage 4 -->
    <_>
      <maxWeakCount>2</maxWeakCount>
      <stageThreshold>-4.6268555521965027e-01</stageThreshold>
      <weakClassifiers>
        <_>
          <internalNodes>
            0 -1 4 4.0528491139411926e-02</internalNodes>
          <leafValues>
            -8.3364927768707275e-01 4.2151865363121033e-01</leafValues></_>
        <_>
          <internalNodes>
            0 -1 7 4.3075911700725555e-02</internalNodes>
          <leafValues>
            -7.2735619544982910e-01 3.7096372246742249e-01</leafValues></_></weakClassifiers></_>
    <!-- stage 5 -->
    <_>
      <maxWeakCount>2</maxWeakCount>
      <stageThreshold>-3.4191456437110901e-01</stageThreshold>
      <weakClassifiers>
        <_>
          <internalNodes>
            0 -1 10 5.3848184645175934e-02</internalNodes>
          <leafValues>
            -6.8628221750259399e-01 5.3733426332473755e-01</leafValues></_>
        <_>
          <internalNodes>
            0 -1 5 7.1853897534310818e-03</internalNodes>
          <leafValues>
            3.4436765313148499e-01 -8.3608114719390869e-01</leafValues></_></weakClassifiers></_></stages>
  <features>
    <_>
      <rect>
        0 0 8 8 1</rect></_>
    <_>
      <rect>
        0 0 8 8 35</rect></_>
    <_>
      <rect>
        0 4 8 8 9</rect></_>
    <_>
      <rect>
        0 4 8 8 24</rect></_>
    <_>
      <rect>
        4 0 8 8 2</rect></_>
    <_>
      <rect>
        4 4 8 8 5</rect></_>
    <_>
      <rect>
        8 0 8 8 14</rect></_>
    <_>
      <rect>
        8 0 8 8 15</rect></_>
    <_>
      <rect>
        8 0 8 8 31</rect></_>
    <_>
      <rect>
        8 4 8 8 28</rect></_>
    <_>
      <rect>
        8 4 8 8 29</rect></_></features></cascade>
</opencv_storage>
