<?xml version="1.0"?>
<opencv_storage>
<cascade>
  <stageType>BOOST</stageType>
  <featureType>HOG</featureType>
  <height>28</height>
  <width>30</width>
  <stageParams>
    <boostType>GAB</boostType>
    <minHitRate>9.4999998807907104e-01</minHitRate>
    <maxFalseAlarm>5.0000000000000000e-01</maxFalseAlarm>
    <weightTrimRate>9.4999999999999996e-01</weightTrimRate>
    <maxDepth>1</maxDepth>
    <maxWeakCount>100</maxWeakCount></stageParams>
  <featureParams>
    <maxCatCount>0</maxCatCount>
    <featSize>36</featSize></featureParams>
  <stageNum>5</stageNum>
  <stages>
    <!-- stage 0 -->
    <_>
      <maxWeakCount>2</maxWeakCount>
      <stageThreshold>-4.4455331563949585e-01</stageThreshold>
      <weakClassifiers>
        <_>
          <internalNodes>
            0 -1 2 3.3343557734042406e-03</internalNodes>
          <leafValues>
            5.0092619657516479e-01 -9.2130517959594727e-01</leafValues></_>
        <_>
          <internalNodes>
            0 -1 9 8.2518644630908966e-03</internalNodes>
          <leafValues>
            4.7675186395645142e-01 -9.7044962644577026e-01</leafValues></_></weakClassifiers></_>
    <!-- stage 1 -->
    <_>
      <maxWeakCount>1</maxWeakCount>
      <stageThreshold>7.1309769153594971e-01</stageThreshold>
      <weakClassifiers>
        <_>
          <internalNodes>
            0 -1 2 3.8180751726031303e-03</internalNodes>
          <leafValues>
            7.1309769153594971e-01 -9.4934499263763428e-01</leafValues></_></weakClassifiers></_>
    <!-- stage 2 -->
    <_>
      <maxWeakCount>4</maxWeakCount>
      <stageThreshold>-3.3693188428878784e-01</stageThreshold>
      <weakClassifiers>
        <_>
          <internalNodes>
            0 -1 11 5.0368659198284149e-02</internalNodes>
          <leafValues>
            -7.2558140754699707e-01 6.4477932453155518e-01</leafValues></_>
        <_>
          <internalNodes>
            0 -1 6 4.0164709091186523e-02</internalNodes>
          <leafValues>
            -5.6244683265686035e-01 6.0693627595901489e-01</leafValues></_>
        <_>
          <internalNodes>
            0 -1 4 1.4888510107994080e-02</internalNodes>
          <leafValues>
            3.7389010190963745e-01 -9.2272400856018066e-01</leafValues></_>
        <_>
          <internalNodes>
            0 -1 1 3.7853740155696869e-02</internalNodes>
          <leafValues>
            -5.6503647565841675e-01 5.7720625400543213e-01</leafValues></_></weakClassifiers></_>
    <!-- stage 3 -->
    <_>
      <maxWeakCount>3</maxWeakCount>
      <stageThreshold>-1.1218978166580200e+00</stageThreshold>
      <weakClassifiers>
        <_>
          <internalNodes>
            0 -1 3 2.7209626510739326e-02</internalNodes>
          <leafValues>
            -7.4828374385833740e-01 3.6986300349235535e-01</leafValues></_>
        <_>
          <internalNodes>
            0 -1 12 5.4337689653038979e-03</internalNodes>
          <leafValues>
            2.9833456873893738e-01 -8.4277856349945068e-01</leafValues></_>
        <_>
          <internalNodes>
            0 -1 10 3.2964464277029037e-02</internalNodes>
          <leafValues>
            -6.7194867134094238e-01 4.0469250082969666e-01</leafValues></_></weakClassifiers></_>
    <!-- stage 4 -->
    <_>
      <maxWeakCount>4</maxWeakCount>
      <stageThreshold>-6.6967958211898804e-01</stageThreshold>
      <weakClassifiers>
        <_>
          <internalNodes>
            0 -1 5 5.0112478435039520e-02</internalNodes>
          <leafValues>
            -7.1314740180969238e-01 3.7182852625846863e-01</leafValues></_>
        <_>
          <internalNodes>
            0 -1 0 2.7182370424270630e-02</internalNodes>
          <leafValues>
            -6.3811594247817993e-01 4.0282702445983887e-01</leafValues></_>
        <_>
          <internalNodes>
            0 -1 7 7.0566516369581223e-03</internalNodes>
          <leafValues>
            2.5504562258720398e-01 -7.9157465696334839e-01</leafValues></_>
        <_>
          <internalNodes>
            0 -1 8 4.1825324296951294e-02</internalNodes>
          <leafValues>
            -4.7221019864082336e-01 4.2653816938400269e-01</leafValues></_></weakClassifiers></_></stages>
  <features>
    <_>
      <rect>
        0 4 8 8 1</rect></_>
    <_>
      <rect>
        0 8 8 8 24</rect></_>
    <_>
      <rect>
        0 8 8 8 35</rect></_>
    <_>
      <rect>
        4 0 8 8 2</rect></_>
    <_>
      <rect>
        4 0 8 8 22</rect></_>
    <_>
      <rect>
        4 8 8 8 23</rect></_>
    <_>
      <rect>
        8 0 8 8 14</rect></_>
    <_>
      <rect>
        8 8 8 8 35</rect></_>
    <_>
      <rect>
        12 0 8 8 15</rect></_>
    <_>
      <rect>
        12 0 8 8 21</rect></_>
    <_>
      <rect>
        12 4 8 8 15</rect></_>
    <_>
      <rect>
        12 8 8 8 29</rect></_>
    <_>
      <rect>
        12 12 8 8 14</rect></_></features></cascade>
</opencv_storage>
