<?xml version="1.0"?>
<opencv_storage>
<cascade>
  <stageType>BOOST</stageType>
  <featureType>HOG</featureType>
  <height>58</height>
  <width>30</width>
  <stageParams>
    <boostType>GAB</boostType>
    <minHitRate>9.9500000476837158e-01</minHitRate>
    <maxFalseAlarm>5.0000000000000000e-01</maxFalseAlarm>
    <weightTrimRate>9.4999999999999996e-01</weightTrimRate>
    <maxDepth>1</maxDepth>
    <maxWeakCount>100</maxWeakCount></stageParams>
  <featureParams>
    <maxCatCount>0</maxCatCount>
    <featSize>36</featSize></featureParams>
  <stageNum>6</stageNum>
  <stages>
    <!-- stage 0 -->
    <_>
      <maxWeakCount>2</maxWeakCount>
      <stageThreshold>-3.3448252081871033e-01</stageThreshold>
      <weakClassifiers>
        <_>
          <internalNodes>
            0 -1 2 3.8375794887542725e-02</internalNodes>
          <leafValues>
            -8.7611389160156250e-01 6.2283325195312500e-01</leafValues></_>
        <_>
          <internalNodes>
            0 -1 8 2.9533649794757366e-03</internalNodes>
          <leafValues>
            5.9644693136215210e-01 -9.5731574296951294e-01</leafValues></_></weakClassifiers></_>
    <!-- stage 1 -->
    <_>
      <maxWeakCount>2</maxWeakCount>
      <stageThreshold>-2.5168627500534058e-01</stageThreshold>
      <weakClassifiers>
        <_>
          <internalNodes>
            0 -1 12 3.9298299700021744e-02</internalNodes>
          <leafValues>
            -8.5510379076004028e-01 6.0397231578826904e-01</leafValues></_>
        <_>
          <internalNodes>
            0 -1 1 7.6478966511785984e-03</internalNodes>
          <leafValues>
            6.0341751575469971e-01 -8.1155329942703247e-01</leafValues></_></weakClassifiers></_>
    <!-- stage 2 -->
    <_>
      <maxWeakCount>3</maxWeakCount>
      <stageThreshold>-9.2528229951858521e-01</stageThreshold>
      <weakClassifiers>
        <_>
          <internalNodes>
            0 -1 4 3.9460103958845139e-02</internalNodes>
          <leafValues>
            -7.9011309146881104e-01 5.7516545057296753e-01</leafValues></_>
        <_>
          <internalNodes>
            0 -1 13 2.1285885013639927e-03</internalNodes>
          <leafValues>
            6.6151547431945801e-01 -7.0828646421432495e-01</leafValues></_>
        <_>
          <internalNodes>
            0 -1 9 3.1717423349618912e-02</internalNodes>
          <leafValues>
            -7.7007848024368286e-01 5.7311725616455078e-01</leafValues></_></weakClassifiers></_>
    <!-- stage 3 -->
    <_>
      <maxWeakCount>3</maxWeakCount>
      <stageThreshold>-1.1926571130752563e+00</stageThreshold>
      <weakClassifiers>
        <_>
          <internalNodes>
            0 -1 0 3.2855793833732605e-02</internalNodes>
          <leafValues>
            -8.0429142713546753e-01 3.9503508806228638e-01</leafValues></_>
        <_>
          <internalNodes>
            0 -1 6 3.0190534889698029e-03</internalNodes>
          <leafValues>
            3.7427568435668945e-01 -9.5286542177200317e-01</leafValues></_>
        <_>
          <internalNodes>
            0 -1 15 4.1295379400253296e-02</internalNodes>
          <leafValues>
            -7.6264131069183350e-01 5.5023622512817383e-01</leafValues></_></weakClassifiers></_>
    <!-- stage 4 -->
    <_>
      <maxWeakCount>4</maxWeakCount>
      <stageThreshold>-7.6371490955352783e-01</stageThreshold>
      <weakClassifiers>
        <_>
          <internalNodes>
            0 -1 3 2.2254589945077896e-02</internalNodes>
          <leafValues>
            -9.0789473056793213e-01 4.1076344251632690e-01</leafValues></_>
        <_>
          <internalNodes>
            0 -1 5 3.7656091153621674e-02</internalNodes>
          <leafValues>
            -8.6977165937423706e-01 3.1663915514945984e-01</leafValues></_>
        <_>
          <internalNodes>
            0 -1 0 2.5539612397551537e-02</internalNodes>
          <leafValues>
            -8.1265711784362793e-01 3.9674869179725647e-01</leafValues></_>
        <_>
          <internalNodes>
            0 -1 14 7.4217859655618668e-03</internalNodes>
          <leafValues>
            6.4019781351089478e-01 -5.5296736955642700e-01</leafValues></_></weakClassifiers></_>
    <!-- stage 5 -->
    <_>
      <maxWeakCount>4</maxWeakCount>
      <stageThreshold>-6.8031346797943115e-01</stageThreshold>
      <weakClassifiers>
        <_>
          <internalNodes>
            0 -1 11 2.0797670003958046e-04</internalNodes>
          <leafValues>
            5.9198999404907227e-01 -6.0648649930953979e-01</leafValues></_>
        <_>
          <internalNodes>
            0 -1 16 3.5767436027526855e-02</internalNodes>
          <leafValues>
            -7.9022073745727539e-01 4.5356786251068115e-01</leafValues></_>
        <_>
          <internalNodes>
            0 -1 7 3.6053936928510666e-03</internalNodes>
          <leafValues>
            2.9668742418289185e-01 -8.4324693679809570e-01</leafValues></_>
        <_>
          <internalNodes>
            0 -1 10 1.3747920282185078e-02</internalNodes>
          <leafValues>
            -7.7877020835876465e-01 5.0278335809707642e-01</leafValues></_></weakClassifiers></_></stages>
  <features>
    <_>
      <rect>
        0 32 8 8 6</rect></_>
    <_>
      <rect>
        4 16 8 8 13</rect></_>
    <_>
      <rect>
        4 16 8 8 33</rect></_>
    <_>
      <rect>
        4 16 8 8 35</rect></_>
    <_>
      <rect>
        4 36 8 8 5</rect></_>
    <_>
      <rect>
        4 36 8 8 12</rect></_>
    <_>
      <rect>
        8 20 8 8 9</rect></_>
    <_>
      <rect>
        8 20 8 8 15</rect></_>
    <_>
      <rect>
        8 20 8 8 16</rect></_>
    <_>
      <rect>
        8 20 8 8 19</rect></_>
    <_>
      <rect>
        8 24 8 8 15</rect></_>
    <_>
      <rect>
        8 28 8 8 26</rect></_>
    <_>
      <rect>
        8 36 8 8 11</rect></_>
    <_>
      <rect>
        12 28 8 8 26</rect></_>
    <_>
      <rect>
        12 28 8 8 31</rect></_>
    <_>
      <rect>
        12 36 8 8 10</rect></_>
    <_>
      <rect>
        12 16 8 16 28</rect></_></features></cascade>
</opencv_storage>
