<?xml version="1.0"?>
<opencv_storage>
<cascade>
  <stageType>BOOST</stageType>
  <featureType>HOG</featureType>
  <height>60</height>
  <width>40</width>
  <stageParams>
    <boostType>GAB</boostType>
    <minHitRate>9.4999998807907104e-01</minHitRate>
    <maxFalseAlarm>5.0000000000000000e-01</maxFalseAlarm>
    <weightTrimRate>9.4999999999999996e-01</weightTrimRate>
    <maxDepth>1</maxDepth>
    <maxWeakCount>100</maxWeakCount></stageParams>
  <featureParams>
    <maxCatCount>0</maxCatCount>
    <featSize>36</featSize></featureParams>
  <stageNum>5</stageNum>
  <stages>
    <!-- stage 0 -->
    <_>
      <maxWeakCount>2</maxWeakCount>
      <stageThreshold>-1.9777688384056091e-01</stageThreshold>
      <weakClassifiers>
        <_>
          <internalNodes>
            0 -1 13 4.0573507547378540e-02</internalNodes>
          <leafValues>
            -8.5447603464126587e-01 5.7848519086837769e-01</leafValues></_>
        <_>
          <internalNodes>
            0 -1 10 3.8934282958507538e-02</internalNodes>
          <leafValues>
            -7.6750129461288452e-01 6.5669912099838257e-01</leafValues></_></weakClassifiers></_>
    <!-- stage 1 -->
    <_>
      <maxWeakCount>2</maxWeakCount>
      <stageThreshold>-3.0212038755416870e-01</stageThreshold>
      <weakClassifiers>
        <_>
          <internalNodes>
            0 -1 2 3.7239589728415012e-03</internalNodes>
          <leafValues>
            6.0925042629241943e-01 -8.0481880903244019e-01</leafValues></_>
        <_>
          <internalNodes>
            0 -1 5 4.7974130138754845e-03</internalNodes>
          <leafValues>
            5.0269836187362671e-01 -6.6752403974533081e-01</leafValues></_></weakClassifiers></_>
    <!-- stage 2 -->
    <_>
      <maxWeakCount>2</maxWeakCount>
      <stageThreshold>-1.9748511910438538e-01</stageThreshold>
      <weakClassifiers>
        <_>
          <internalNodes>
            0 -1 3 1.1909948079846799e-04</internalNodes>
          <leafValues>
            6.8296617269515991e-01 -6.6559255123138428e-01</leafValues></_>
        <_>
          <internalNodes>
            0 -1 4 2.2677535191178322e-02</internalNodes>
          <leafValues>
            -6.6330426931381226e-01 4.6810743212699890e-01</leafValues></_></weakClassifiers></_>
    <!-- stage 3 -->
    <_>
      <maxWeakCount>4</maxWeakCount>
      <stageThreshold>-5.7151061296463013e-01</stageThreshold>
      <weakClassifiers>
        <_>
          <internalNodes>
            0 -1 6 1.8167013768106699e-03</internalNodes>
          <leafValues>
            3.8803556561470032e-01 -6.8509954214096069e-01</leafValues></_>
        <_>
          <internalNodes>
            0 -1 9 4.1523203253746033e-02</internalNodes>
          <leafValues>
            -6.6573542356491089e-01 3.5991010069847107e-01</leafValues></_>
        <_>
          <internalNodes>
            0 -1 12 2.6734393090009689e-02</internalNodes>
          <leafValues>
            -8.1485766172409058e-01 3.5605633258819580e-01</leafValues></_>
        <_>
          <internalNodes>
            0 -1 7 3.5192593932151794e-02</internalNodes>
          <leafValues>
            -5.0459855794906616e-01 4.7734853625297546e-01</leafValues></_></weakClassifiers></_>
    <!-- stage 4 -->
    <_>
      <maxWeakCount>4</maxWeakCount>
      <stageThreshold>-7.5964927673339844e-01</stageThreshold>
      <weakClassifiers>
        <_>
          <internalNodes>
            0 -1 8 4.8959065228700638e-02</internalNodes>
          <leafValues>
            -6.8950933218002319e-01 2.9900699853897095e-01</leafValues></_>
        <_>
          <internalNodes>
            0 -1 11 1.5698831528425217e-02</internalNodes>
          <leafValues>
            -7.7117902040481567e-01 2.4607872962951660e-01</leafValues></_>
        <_>
          <internalNodes>
            0 -1 1 6.4360592514276505e-03</internalNodes>
          <leafValues>
            2.3905859887599945e-01 -8.0944019556045532e-01</leafValues></_>
        <_>
          <internalNodes>
            0 -1 0 4.2316738516092300e-02</internalNodes>
          <leafValues>
            -4.6991068124771118e-01 4.6198049187660217e-01</leafValues></_></weakClassifiers></_></stages>
  <features>
    <_>
      <rect>
        8 20 8 8 28</rect></_>
    <_>
      <rect>
        8 28 8 8 27</rect></_>
    <_>
      <rect>
        8 28 8 8 35</rect></_>
    <_>
      <rect>
        8 32 8 8 35</rect></_>
    <_>
      <rect>
        12 32 8 8 23</rect></_>
    <_>
      <rect>
        16 28 8 8 32</rect></_>
    <_>
      <rect>
        20 32 8 8 24</rect></_>
    <_>
      <rect>
        20 36 8 8 10</rect></_>
    <_>
      <rect>
        0 32 16 8 8</rect></_>
    <_>
      <rect>
        4 20 16 8 19</rect></_>
    <_>
      <rect>
        4 20 16 8 33</rect></_>
    <_>
      <rect>
        8 16 16 8 21</rect></_>
    <_>
      <rect>
        4 20 16 16 15</rect></_>
    <_>
      <rect>
        8 20 16 16 1</rect></_></features></cascade>
</opencv_storage>
