<?xml version="1.0"?>
<opencv_storage>
<stage2>
  <maxWeakCount>5</maxWeakCount>
  <stageThreshold>-1.5543127059936523e+00</stageThreshold>
  <weakClassifiers>
    <_>
      <internalNodes>
        0 -1 87 5.4427977651357651e-02</internalNodes>
      <leafValues>
        -8.1711977720260620e-01 4.8340961337089539e-01</leafValues></_>
    <_>
      <internalNodes>
        0 -1 2 3.3307798206806183e-02</internalNodes>
      <leafValues>
        -6.7412650585174561e-01 4.4635677337646484e-01</leafValues></_>
    <_>
      <internalNodes>
        0 -1 98 9.1399438679218292e-04</internalNodes>
      <leafValues>
        4.5177510380744934e-01 -6.5894550085067749e-01</leafValues></_>
    <_>
      <internalNodes>
        0 -1 36 1.1931222863495350e-02</internalNodes>
      <leafValues>
        -7.8399240970611572e-01 4.5976069569587708e-01</leafValues></_>
    <_>
      <internalNodes>
        0 -1 14 2.7060622349381447e-02</internalNodes>
      <leafValues>
        -7.9888683557510376e-01 2.5938811898231506e-01</leafValues></_></weakClassifiers></stage2>
</opencv_storage>
